<?xml version="1.0"?>
<opencv_storage>
<stage13>
  <maxWeakCount>40</maxWeakCount>
  <stageThreshold>-1.5099171400070190e+00</stageThreshold>
  <weakClassifiers>
    <_>
      <internalNodes>
        0 -1 349519 1.5379466116428375e-02</internalNodes>
      <leafValues>
        -7.1517729759216309e-01 -4.5652174949645996e-01</leafValues></_>
    <_>
      <internalNodes>
        0 -1 561722 7.2445869445800781e-03</internalNodes>
      <leafValues>
        -2.7792024612426758e-01 4.0139202028512955e-02</leafValues></_>
    <_>
      <internalNodes>
        0 -1 1170186 -2.4715173989534378e-02</internalNodes>
      <leafValues>
        3.0845758318901062e-01 -8.7211415171623230e-02</leafValues></_>
    <_>
      <internalNodes>
        0 -1 676518 3.6955513060092926e-02</internalNodes>
      <leafValues>
        -7.7607788145542145e-02 3.1048163771629333e-01</leafValues></_>
    <_>
      <internalNodes>
        0 -1 827 -1.4354011975228786e-02</internalNodes>
      <leafValues>
        2.9595789313316345e-01 -8.5720159113407135e-02</leafValues></_>
    <_>
      <internalNodes>
        0 -1 8994 1.0786866769194603e-03</internalNodes>
      <leafValues>
        7.1304321289062500e-02 -3.7474188208580017e-01</leafValues></_>
    <_>
      <internalNodes>
        0 -1 69342 -1.6254048794507980e-02</internalNodes>
      <leafValues>
        -5.6314885616302490e-01 8.1584334373474121e-02</leafValues></_>
    <_>
      <internalNodes>
        0 -1 862774 -3.4981101751327515e-02</internalNodes>
      <leafValues>
        2.3360709846019745e-01 -1.1326740682125092e-01</leafValues></_>
    <_>
      <internalNodes>
        0 -1 1039615 7.1321059949696064e-03</internalNodes>
      <leafValues>
        -8.3639733493328094e-02 3.0830183625221252e-01</leafValues></_>
    <_>
      <internalNodes>
        0 -1 14854 -2.7028625481761992e-04</internalNodes>
      <leafValues>
        2.1312844753265381e-01 -1.2806844711303711e-01</leafValues></_>
    <_>
      <internalNodes>
        0 -1 594734 1.6620493261143565e-03</internalNodes>
      <leafValues>
        2.4669351056218147e-02 -6.7134779691696167e-01</leafValues></_>
    <_>
      <internalNodes>
        0 -1 18035 -1.3808134943246841e-02</internalNodes>
      <leafValues>
        -5.6149089336395264e-01 5.3300324827432632e-02</leafValues></_>
    <_>
      <internalNodes>
        0 -1 184893 4.7309193760156631e-03</internalNodes>
      <leafValues>
        -7.8558452427387238e-02 3.0317139625549316e-01</leafValues></_>
    <_>
      <internalNodes>
        0 -1 1110009 1.2053072452545166e-02</internalNodes>
      <leafValues>
        2.4866398423910141e-02 -7.0575618743896484e-01</leafValues></_>
    <_>
      <internalNodes>
        0 -1 1048569 2.3758225142955780e-03</internalNodes>
      <leafValues>
        3.2856091856956482e-02 -8.5111594200134277e-01</leafValues></_>
    <_>
      <internalNodes>
        0 -1 62430 -4.1153084486722946e-02</internalNodes>
      <leafValues>
        4.4707465171813965e-01 -6.0745611786842346e-02</leafValues></_>
    <_>
      <internalNodes>
        0 -1 1021021 1.6020420938730240e-02</internalNodes>
      <leafValues>
        -1.4725267887115479e-01 1.7592959105968475e-01</leafValues></_>
    <_>
      <internalNodes>
        0 -1 525947 -3.0751705169677734e-02</internalNodes>
      <leafValues>
        -5.3084963560104370e-01 5.0783850252628326e-02</leafValues></_>
    <_>
      <internalNodes>
        0 -1 279269 8.6635723710060120e-04</internalNodes>
      <leafValues>
        -1.4725880324840546e-01 2.0810671150684357e-01</leafValues></_>
    <_>
      <internalNodes>
        0 -1 235361 5.8568017266225070e-05</internalNodes>
      <leafValues>
        8.7927818298339844e-02 -3.1071630120277405e-01</leafValues></_>
    <_>
      <internalNodes>
        0 -1 1177509 4.6614542952738702e-04</internalNodes>
      <leafValues>
        -9.1752484440803528e-02 2.9504680633544922e-01</leafValues></_>
    <_>
      <internalNodes>
        0 -1 121852 -1.2949217110872269e-02</internalNodes>
      <leafValues>
        4.1103753447532654e-01 -6.2228262424468994e-02</leafValues></_>
    <_>
      <internalNodes>
        0 -1 625636 9.3202834250405431e-04</internalNodes>
      <leafValues>
        -1.1157575994729996e-01 2.2550837695598602e-01</leafValues></_>
    <_>
      <internalNodes>
        0 -1 1034243 9.5228794962167740e-03</internalNodes>
      <leafValues>
        6.5976515412330627e-02 -3.9104810357093811e-01</leafValues></_>
    <_>
      <internalNodes>
        0 -1 230057 1.0326587362214923e-03</internalNodes>
      <leafValues>
        -1.1155866831541061e-01 2.3410396277904510e-01</leafValues></_>
    <_>
      <internalNodes>
        0 -1 997785 -6.6673010587692261e-04</internalNodes>
      <leafValues>
        -4.6682962775230408e-01 5.6632120162248611e-02</leafValues></_>
    <_>
      <internalNodes>
        0 -1 1200370 2.2515985183417797e-03</internalNodes>
      <leafValues>
        -1.0227476805448532e-01 2.6152345538139343e-01</leafValues></_>
    <_>
      <internalNodes>
        0 -1 491500 -5.9253182262182236e-03</internalNodes>
      <leafValues>
        3.1033486127853394e-01 -8.4692403674125671e-02</leafValues></_>
    <_>
      <internalNodes>
        0 -1 1232441 -1.3776493142358959e-04</internalNodes>
      <leafValues>
        -2.5071093440055847e-01 1.0723053663969040e-01</leafValues></_>
    <_>
      <internalNodes>
        0 -1 1047505 -1.2661118526011705e-03</internalNodes>
      <leafValues>
        -7.0606291294097900e-01 3.4098915755748749e-02</leafValues></_>
    <_>
      <internalNodes>
        0 -1 1045285 -7.3605697252787650e-05</internalNodes>
      <leafValues>
        2.6181313395500183e-01 -1.0639557987451553e-01</leafValues></_>
    <_>
      <internalNodes>
        0 -1 533328 7.6408719178289175e-04</internalNodes>
      <leafValues>
        -1.1167289316654205e-01 2.3049251735210419e-01</leafValues></_>
    <_>
      <internalNodes>
        0 -1 1239690 7.0574635174125433e-05</internalNodes>
      <leafValues>
        1.0171534866094589e-01 -2.4730908870697021e-01</leafValues></_>
    <_>
      <internalNodes>
        0 -1 1215002 -7.8356247395277023e-03</internalNodes>
      <leafValues>
        3.2389271259307861e-01 -8.0076240003108978e-02</leafValues></_>
    <_>
      <internalNodes>
        0 -1 154580 1.6024131327867508e-03</internalNodes>
      <leafValues>
        -7.7223025262355804e-02 3.2337391376495361e-01</leafValues></_>
    <_>
      <internalNodes>
        0 -1 1222732 -1.0022187780123204e-04</internalNodes>
      <leafValues>
        -2.8126242756843567e-01 1.0052203387022018e-01</leafValues></_>
    <_>
      <internalNodes>
        0 -1 114242 9.9690929055213928e-02</internalNodes>
      <leafValues>
        -6.7665584385395050e-02 3.9849784970283508e-01</leafValues></_>
    <_>
      <internalNodes>
        0 -1 373109 -6.3008643686771393e-02</internalNodes>
      <leafValues>
        3.6003667116165161e-01 -8.8741660118103027e-02</leafValues></_>
    <_>
      <internalNodes>
        0 -1 894066 8.8859687093645334e-04</internalNodes>
      <leafValues>
        -1.0960850119590759e-01 2.5455498695373535e-01</leafValues></_>
    <_>
      <internalNodes>
        0 -1 168584 -1.2377661187201738e-04</internalNodes>
      <leafValues>
        -3.4038552641868591e-01 7.3474757373332977e-02</leafValues></_></weakClassifiers></stage13>
</opencv_storage>
